digraph Tree {
node [shape=box, style="filled, rounded", color="black", fontname=helvetica] ;
edge [fontname=helvetica] ;
0 [label=<ShelveLoc_Good &le; 0.5<br/>gini = 0.484<br/>samples = 400<br/>value = [236, 164]<br/>class = True>, fillcolor="#e581394e"] ;
1 [label=<Price &le; 92.5<br/>gini = 0.429<br/>samples = 315<br/>value = [217, 98]<br/>class = True>, fillcolor="#e581398c"] ;
0 -> 1 [labeldistance=2.5, labelangle=45, headlabel="True"] ;
2 [label=<Income &le; 57.0<br/>gini = 0.423<br/>samples = 46<br/>value = [14, 32]<br/>class = False>, fillcolor="#399de58f"] ;
1 -> 2 ;
3 [label=<gini = 0.42<br/>samples = 10<br/>value = [7, 3]<br/>class = True>, fillcolor="#e5813992"] ;
2 -> 3 ;
4 [label=<Population &le; 207.5<br/>gini = 0.313<br/>samples = 36<br/>value = [7, 29]<br/>class = False>, fillcolor="#399de5c1"] ;
2 -> 4 ;
5 [label=<Age &le; 56.5<br/>gini = 0.469<br/>samples = 16<br/>value = [6, 10]<br/>class = False>, fillcolor="#399de566"] ;
4 -> 5 ;
6 [label=<gini = 0.219<br/>samples = 8<br/>value = [1, 7]<br/>class = False>, fillcolor="#399de5db"] ;
5 -> 6 ;
7 [label=<gini = 0.469<br/>samples = 8<br/>value = [5, 3]<br/>class = True>, fillcolor="#e5813966"] ;
5 -> 7 ;
8 [label=<Income &le; 115.0<br/>gini = 0.095<br/>samples = 20<br/>value = [1, 19]<br/>class = False>, fillcolor="#399de5f2"] ;
4 -> 8 ;
9 [label=<gini = 0.0<br/>samples = 19<br/>value = [0, 19]<br/>class = False>, fillcolor="#399de5ff"] ;
8 -> 9 ;
10 [label=<gini = 0.0<br/>samples = 1<br/>value = [1, 0]<br/>class = True>, fillcolor="#e58139ff"] ;
8 -> 10 ;
11 [label=<Advertising &le; 13.5<br/>gini = 0.37<br/>samples = 269<br/>value = [203, 66]<br/>class = True>, fillcolor="#e58139ac"] ;
1 -> 11 ;
12 [label=<CompPrice &le; 124.5<br/>gini = 0.299<br/>samples = 224<br/>value = [183, 41]<br/>class = True>, fillcolor="#e58139c6"] ;
11 -> 12 ;
13 [label=<Price &le; 106.5<br/>gini = 0.117<br/>samples = 96<br/>value = [90, 6]<br/>class = True>, fillcolor="#e58139ee"] ;
12 -> 13 ;
14 [label=<Population &le; 177.0<br/>gini = 0.266<br/>samples = 38<br/>value = [32, 6]<br/>class = True>, fillcolor="#e58139cf"] ;
13 -> 14 ;
15 [label=<gini = 0.486<br/>samples = 12<br/>value = [7, 5]<br/>class = True>, fillcolor="#e5813949"] ;
14 -> 15 ;
16 [label=<Income &le; 102.5<br/>gini = 0.074<br/>samples = 26<br/>value = [25, 1]<br/>class = True>, fillcolor="#e58139f5"] ;
14 -> 16 ;
17 [label=<gini = 0.0<br/>samples = 23<br/>value = [23, 0]<br/>class = True>, fillcolor="#e58139ff"] ;
16 -> 17 ;
18 [label=<gini = 0.444<br/>samples = 3<br/>value = [2, 1]<br/>class = True>, fillcolor="#e581397f"] ;
16 -> 18 ;
19 [label=<gini = 0.0<br/>samples = 58<br/>value = [58, 0]<br/>class = True>, fillcolor="#e58139ff"] ;
13 -> 19 ;
20 [label=<Price &le; 109.5<br/>gini = 0.397<br/>samples = 128<br/>value = [93, 35]<br/>class = True>, fillcolor="#e581399f"] ;
12 -> 20 ;
21 [label=<ShelveLoc_Medium &le; 0.5<br/>gini = 0.408<br/>samples = 21<br/>value = [6, 15]<br/>class = False>, fillcolor="#399de599"] ;
20 -> 21 ;
22 [label=<gini = 0.0<br/>samples = 5<br/>value = [5, 0]<br/>class = True>, fillcolor="#e58139ff"] ;
21 -> 22 ;
23 [label=<Age &le; 64.5<br/>gini = 0.117<br/>samples = 16<br/>value = [1, 15]<br/>class = False>, fillcolor="#399de5ee"] ;
21 -> 23 ;
24 [label=<gini = 0.0<br/>samples = 14<br/>value = [0, 14]<br/>class = False>, fillcolor="#399de5ff"] ;
23 -> 24 ;
25 [label=<gini = 0.5<br/>samples = 2<br/>value = [1, 1]<br/>class = True>, fillcolor="#e5813900"] ;
23 -> 25 ;
26 [label=<Price &le; 126.5<br/>gini = 0.304<br/>samples = 107<br/>value = [87, 20]<br/>class = True>, fillcolor="#e58139c4"] ;
20 -> 26 ;
27 [label=<Age &le; 49.5<br/>gini = 0.444<br/>samples = 42<br/>value = [28, 14]<br/>class = True>, fillcolor="#e581397f"] ;
26 -> 27 ;
28 [label=<CompPrice &le; 137.0<br/>gini = 0.48<br/>samples = 20<br/>value = [8, 12]<br/>class = False>, fillcolor="#399de555"] ;
27 -> 28 ;
29 [label=<gini = 0.49<br/>samples = 14<br/>value = [8, 6]<br/>class = True>, fillcolor="#e5813940"] ;
28 -> 29 ;
30 [label=<gini = 0.0<br/>samples = 6<br/>value = [0, 6]<br/>class = False>, fillcolor="#399de5ff"] ;
28 -> 30 ;
31 [label=<Price &le; 125.0<br/>gini = 0.165<br/>samples = 22<br/>value = [20, 2]<br/>class = True>, fillcolor="#e58139e6"] ;
27 -> 31 ;
32 [label=<Advertising &le; 11.0<br/>gini = 0.095<br/>samples = 20<br/>value = [19, 1]<br/>class = True>, fillcolor="#e58139f2"] ;
31 -> 32 ;
33 [label=<gini = 0.0<br/>samples = 18<br/>value = [18, 0]<br/>class = True>, fillcolor="#e58139ff"] ;
32 -> 33 ;
34 [label=<gini = 0.5<br/>samples = 2<br/>value = [1, 1]<br/>class = True>, fillcolor="#e5813900"] ;
32 -> 34 ;
35 [label=<gini = 0.5<br/>samples = 2<br/>value = [1, 1]<br/>class = True>, fillcolor="#e5813900"] ;
31 -> 35 ;
36 [label=<CompPrice &le; 147.5<br/>gini = 0.168<br/>samples = 65<br/>value = [59, 6]<br/>class = True>, fillcolor="#e58139e5"] ;
26 -> 36 ;
37 [label=<Population &le; 97.5<br/>gini = 0.039<br/>samples = 50<br/>value = [49, 1]<br/>class = True>, fillcolor="#e58139fa"] ;
36 -> 37 ;
38 [label=<gini = 0.219<br/>samples = 8<br/>value = [7, 1]<br/>class = True>, fillcolor="#e58139db"] ;
37 -> 38 ;
39 [label=<gini = 0.0<br/>samples = 42<br/>value = [42, 0]<br/>class = True>, fillcolor="#e58139ff"] ;
37 -> 39 ;
40 [label=<CompPrice &le; 151.5<br/>gini = 0.444<br/>samples = 15<br/>value = [10, 5]<br/>class = True>, fillcolor="#e581397f"] ;
36 -> 40 ;
41 [label=<gini = 0.469<br/>samples = 8<br/>value = [3, 5]<br/>class = False>, fillcolor="#399de566"] ;
40 -> 41 ;
42 [label=<gini = 0.0<br/>samples = 7<br/>value = [7, 0]<br/>class = True>, fillcolor="#e58139ff"] ;
40 -> 42 ;
43 [label=<Age &le; 54.5<br/>gini = 0.494<br/>samples = 45<br/>value = [20, 25]<br/>class = False>, fillcolor="#399de533"] ;
11 -> 43 ;
44 [label=<CompPrice &le; 130.5<br/>gini = 0.32<br/>samples = 25<br/>value = [5, 20]<br/>class = False>, fillcolor="#399de5bf"] ;
43 -> 44 ;
45 [label=<gini = 0.459<br/>samples = 14<br/>value = [5, 9]<br/>class = False>, fillcolor="#399de571"] ;
44 -> 45 ;
46 [label=<gini = 0.0<br/>samples = 11<br/>value = [0, 11]<br/>class = False>, fillcolor="#399de5ff"] ;
44 -> 46 ;
47 [label=<CompPrice &le; 122.5<br/>gini = 0.375<br/>samples = 20<br/>value = [15, 5]<br/>class = True>, fillcolor="#e58139aa"] ;
43 -> 47 ;
48 [label=<gini = 0.0<br/>samples = 10<br/>value = [10, 0]<br/>class = True>, fillcolor="#e58139ff"] ;
47 -> 48 ;
49 [label=<gini = 0.5<br/>samples = 10<br/>value = [5, 5]<br/>class = True>, fillcolor="#e5813900"] ;
47 -> 49 ;
50 [label=<Price &le; 142.5<br/>gini = 0.347<br/>samples = 85<br/>value = [19, 66]<br/>class = False>, fillcolor="#399de5b6"] ;
0 -> 50 [labeldistance=2.5, labelangle=-45, headlabel="False"] ;
51 [label=<Income &le; 34.5<br/>gini = 0.236<br/>samples = 73<br/>value = [10, 63]<br/>class = False>, fillcolor="#399de5d7"] ;
50 -> 51 ;
52 [label=<gini = 0.497<br/>samples = 13<br/>value = [6, 7]<br/>class = False>, fillcolor="#399de524"] ;
51 -> 52 ;
53 [label=<US_No &le; 0.5<br/>gini = 0.124<br/>samples = 60<br/>value = [4, 56]<br/>class = False>, fillcolor="#399de5ed"] ;
51 -> 53 ;
54 [label=<Income &le; 98.5<br/>gini = 0.04<br/>samples = 49<br/>value = [1, 48]<br/>class = False>, fillcolor="#399de5fa"] ;
53 -> 54 ;
55 [label=<gini = 0.0<br/>samples = 40<br/>value = [0, 40]<br/>class = False>, fillcolor="#399de5ff"] ;
54 -> 55 ;
56 [label=<gini = 0.198<br/>samples = 9<br/>value = [1, 8]<br/>class = False>, fillcolor="#399de5df"] ;
54 -> 56 ;
57 [label=<gini = 0.397<br/>samples = 11<br/>value = [3, 8]<br/>class = False>, fillcolor="#399de59f"] ;
53 -> 57 ;
58 [label=<gini = 0.375<br/>samples = 12<br/>value = [9, 3]<br/>class = True>, fillcolor="#e58139aa"] ;
50 -> 58 ;
}